{"learner":{"attributes":{},"feature_names":["avg_temp","avg_humidity","avg_co2","avg_tvoc","predicted"],"feature_types":["float","float","float","float","int"],"gradient_booster":{"model":{"gbtree_model_param":{"num_parallel_tree":"1","num_trees":"40"},"iteration_indptr":[0,1,2,3,4,5,6,7,8,9,10,11,12,13,14,15,16,17,18,19,20,21,22,23,24,25,26,27,28,29,30,31,32,33,34,35,36,37,38,39,40],"tree_info":[0,0,0,0,0,0,0,0,0,0,0,0,0,0,0,0,0,0,0,0,0,0,0,0,0,0,0,0,0,0,0,0,0,0,0,0,0,0,0,0],"trees":[{"base_weights":[-0E0,-3.294271E-2,7.90625E-1,9.4921875E-1,1.04166664E-1,4.921875E-2,1.12500004E-1,-1.71875E-2,3.2812502E-2],"categories":[],"categories_nodes":[],"categories_segments":[],"categories_sizes":[],"default_left":[0,0,0,0,0,0,0,0,0],"id":0,"left_children":[1,-1,3,5,7,-1,-1,-1,-1],"loss_changes":[8.855412E0,0E0,9.898033E-1,8.898926E-2,2.4186198E-1,0E0,0E0,0E0,0E0],"parents":[2147483647,0,0,2,2,3,3,4,4],"right_children":[2,-1,4,6,8,-1,-1,-1,-1],"split_conditions":[1E0,-3.294271E-2,5.617E1,2E0,2.185E1,4.921875E-2,1.12500004E-1,-1.71875E-2,3.2812502E-2],"split_indices":[4,0,1,4,0,0,0,0,0],"split_type":[0,0,0,0,0,0,0,0,0],"sum_hessian":[3.2E1,2.3E1,9E0,7E0,2E0,3E0,4E0,1E0,1E0],"tree_param":{"num_deleted":"0","num_feature":"5","num_nodes":"9","size_leaf_vector":"1"}},{"base_weights":[-0E0,-3.3000004E-2,9.166667E-2],"categories":[],"categories_nodes":[],"categories_segments":[],"categories_sizes":[],"default_left":[0,0,0],"id":1,"left_children":[1,-1,-1],"loss_changes":[1.0285E1,0E0,0E0],"parents":[2147483647,0,0],"right_children":[2,-1,-1],"split_conditions":[1E0,-3.3000004E-2,9.166667E-2],"split_indices":[4,0,0],"split_type":[0,0,0],"sum_hessian":[3.2E1,2.4E1,8E0],"tree_param":{"num_deleted":"0","num_feature":"5","num_nodes":"3","size_leaf_vector":"1"}},{"base_weights":[-1.3359662E-8,-4.0601503E-2,7.0129865E-1,8.75E-2,1.785714E-1,-2.1428572E-2,3.8095236E-2],"categories":[],"categories_nodes":[],"categories_segments":[],"categories_sizes":[],"default_left":[0,0,0,0,0,0,0],"id":2,"left_children":[1,-1,3,-1,5,-1,-1],"loss_changes":[8.542134E0,0E0,8.4253216E-1,0E0,3.9965984E-1,0E0,0E0],"parents":[2147483647,0,0,2,2,4,4],"right_children":[2,-1,4,-1,6,-1,-1],"split_conditions":[1E0,-4.0601503E-2,3.072E1,8.75E-2,3.117E1,-2.1428572E-2,3.8095236E-2],"split_indices":[4,0,0,0,0,0,0],"split_type":[0,0,0,0,0,0,0],"sum_hessian":[2.8E1,1.8E1,1E1,7E0,3E0,1E0,2E0],"tree_param":{"num_deleted":"0","num_feature":"5","num_nodes":"7","size_leaf_vector":"1"}},{"base_weights":[-1.3359662E-8,-3.6054423E-1,8.412698E-1,2.8571427E-2,-4.0714286E-2,4.7619045E-2,1.1785715E-1],"categories":[],"categories_nodes":[],"categories_segments":[],"categories_sizes":[],"default_left":[0,0,0,0,0,0,0],"id":3,"left_children":[1,3,5,-1,-1,-1,-1],"loss_changes":[9.099449E0,7.487366E-1,5.470524E-1,0E0,0E0,0E0,0E0],"parents":[2147483647,0,0,1,1,2,2],"right_children":[2,4,6,-1,-1,-1,-1],"split_conditions":[1E0,2.16E1,2E0,2.8571427E-2,-4.0714286E-2,4.7619045E-2,1.1785715E-1],"split_indices":[4,0,4,0,0,0,0],"split_type":[0,0,0,0,0,0,0],"sum_hessian":[2.8E1,2E1,8E0,1E0,1.9E1,5E0,3E0],"tree_param":{"num_deleted":"0","num_feature":"5","num_nodes":"7","size_leaf_vector":"1"}},{"base_weights":[9.386131E-2,-1.4281504E-1,6.356771E-1,3.6711138E-2,-1.8666694E-2,3.1687133E-2,9.5496655E-2],"categories":[],"categories_nodes":[],"categories_segments":[],"categories_sizes":[],"default_left":[0,0,0,0,0,0,0],"id":4,"left_children":[1,3,5,-1,-1,-1,-1],"loss_changes":[3.809599E0,5.381136E-1,6.135206E-1,0E0,0E0,0E0,0E0],"parents":[2147483647,0,0,1,1,2,2],"right_children":[2,4,6,-1,-1,-1,-1],"split_conditions":[1E0,2.16E1,2E0,3.6711138E-2,-1.8666694E-2,3.1687133E-2,9.5496655E-2],"split_indices":[4,0,4,0,0,0,0],"split_type":[0,0,0,0,0,0,0],"sum_hessian":[2.8E1,2E1,8E0,1E0,1.9E1,5E0,3E0],"tree_param":{"num_deleted":"0","num_feature":"5","num_nodes":"7","size_leaf_vector":"1"}},{"base_weights":[3.1882434E-3,-1.3385148E-1,7.97381E-2,-2.0273888E-2,1.6400672E-1,2.8518418E-2,-5.2232128E-2,-2.7667409E-2,1.983259E-2],"categories":[],"categories_nodes":[],"categories_segments":[],"categories_sizes":[],"default_left":[0,0,0,0,0,0,0,0,0],"id":5,"left_children":[1,3,-1,-1,5,-1,7,-1,-1],"loss_changes":[3.6983173E0,6.282922E-1,0E0,0E0,1.7211543E-1,0E0,2.2357886E-1,0E0,0E0],"parents":[2147483647,0,0,1,1,4,4,6,6],"right_children":[2,4,-1,-1,6,-1,8,-1,-1],"split_conditions":[2E0,1E0,7.97381E-2,-2.0273888E-2,4.917E1,2.8518418E-2,2.185E1,-2.7667409E-2,1.983259E-2],"split_indices":[4,4,0,0,1,0,0,0,0],"split_type":[0,0,0,0,0,0,0,0,0],"sum_hessian":[3.2E1,2.8E1,4E0,2.3E1,5E0,3E0,2E0,1E0,1E0],"tree_param":{"num_deleted":"0","num_feature":"5","num_nodes":"9","size_leaf_vector":"1"}},{"base_weights":[3.3586316E-2,-1.8863184E-2,6.4712715E-1,1.9012278E-2,6.804874E-1,1.9012278E-2,7.233791E-1,7.778336E-2,1.983259E-2],"categories":[],"categories_nodes":[],"categories_segments":[],"categories_sizes":[],"default_left":[0,0,0,0,0,0,0,0,0],"id":6,"left_children":[1,-1,3,-1,5,-1,7,-1,-1],"loss_changes":[4.6212864E0,0E0,7.835388E-3,0E0,3.072977E-2,0E0,4.5876026E-2,0E0,0E0],"parents":[2147483647,0,0,2,2,4,4,6,6],"right_children":[2,-1,4,-1,6,-1,8,-1,-1],"split_conditions":[1E0,-1.8863184E-2,2.241E1,1.9012278E-2,4.902E1,1.9012278E-2,2.562E1,7.778336E-2,1.983259E-2],"split_indices":[4,0,0,0,1,0,0,0,0],"split_type":[0,0,0,0,0,0,0,0,0],"sum_hessian":[3.2E1,2.4E1,8E0,1E0,7E0,1E0,6E0,5E0,1E0],"tree_param":{"num_deleted":"0","num_feature":"5","num_nodes":"9","size_leaf_vector":"1"}},{"base_weights":[7.8827426E-2,-1.8614985E-2,5.293493E-1,6.8429595E-1,8.7118685E-2,7.277318E-2,1.9012278E-2,-2.5541294E-2,2.8643355E-2],"categories":[],"categories_nodes":[],"categories_segments":[],"categories_sizes":[],"default_left":[0,0,0,0,0,0,0,0,0],"id":7,"left_children":[1,-1,3,5,7,-1,-1,-1,-1],"loss_changes":[3.560502E0,0E0,6.9412875E-1,3.3360004E-2,3.4624538E-1,0E0,0E0,0E0,0E0],"parents":[2147483647,0,0,2,2,3,3,4,4],"right_children":[2,-1,4,6,8,-1,-1,-1,-1],"split_conditions":[1E0,-1.8614985E-2,3.072E1,7.559E1,3.117E1,7.277318E-2,1.9012278E-2,-2.5541294E-2,2.8643355E-2],"split_indices":[4,0,0,3,0,0,0,0,0],"split_type":[0,0,0,0,0,0,0,0,0],"sum_hessian":[2.8E1,1.8E1,1E1,7E0,3E0,6E0,1E0,1E0,2E0],"tree_param":{"num_deleted":"0","num_feature":"5","num_nodes":"9","size_leaf_vector":"1"}},{"base_weights":[7.444637E-2,-1.1375313E-2,3.9275038E-1,5.301473E-1,1.9768938E-2,3.3886963E-1,7.359869E-2,-2.8225122E-2,2.1452606E-2,1.9492893E-2,5.2928664E-2],"categories":[],"categories_nodes":[],"categories_segments":[],"categories_sizes":[],"default_left":[0,0,0,0,0,0,0,0,0,0,0],"id":8,"left_children":[1,-1,3,5,7,9,-1,-1,-1,-1,-1],"loss_changes":[1.7819116E0,0E0,5.532311E-1,6.557655E-2,2.958325E-1,6.1279237E-2,0E0,0E0,0E0,0E0,0E0],"parents":[2147483647,0,0,2,2,3,3,4,4,5,5],"right_children":[2,-1,4,6,8,10,-1,-1,-1,-1,-1],"split_conditions":[1E0,-1.1375313E-2,3.072E1,6.2773E2,3.117E1,2.983E1,7.359869E-2,-2.8225122E-2,2.1452606E-2,1.9492893E-2,5.2928664E-2],"split_indices":[4,0,0,2,0,0,0,0,0,0,0],"split_type":[0,0,0,0,0,0,0,0,0,0,0],"sum_hessian":[2.8E1,1.8E1,1E1,7E0,3E0,5E0,2E0,1E0,2E0,4E0,1E0],"tree_param":{"num_deleted":"0","num_feature":"5","num_nodes":"11","size_leaf_vector":"1"}},{"base_weights":[-3.7408774E-3,-1.06759794E-1,5.94517E-2,-1.410413E-1,4.815949E-2,-2.0394694E-2,-1.1375313E-2,1.7119093E-2,-1.3193558E-1,-3.245767E-2,1.2667331E-2],"categories":[],"categories_nodes":[],"categories_segments":[],"categories_sizes":[],"default_left":[0,0,0,0,0,0,0,0,0,0,0],"id":9,"left_children":[1,3,-1,5,7,-1,-1,-1,9,-1,-1],"loss_changes":[2.0973225E0,1.6080758E-1,0E0,1.7998278E-2,1.5553029E-1,0E0,0E0,0E0,1.9057131E-1,0E0,0E0],"parents":[2147483647,0,0,1,1,3,3,4,4,8,8],"right_children":[2,4,-1,6,8,-1,-1,-1,10,-1,-1],"split_conditions":[2E0,1E0,5.94517E-2,2.163E1,4.917E1,-2.0394694E-2,-1.1375313E-2,1.7119093E-2,2.185E1,-3.245767E-2,1.2667331E-2],"split_indices":[4,4,0,0,1,0,0,0,0,0,0],"split_type":[0,0,0,0,0,0,0,0,0,0,0],"sum_hessian":[3.2E1,2.8E1,4E0,2.3E1,5E0,5E0,1.8E1,3E0,2E0,1E0,1E0],"tree_param":{"num_deleted":"0","num_feature":"5","num_nodes":"11","size_leaf_vector":"1"}},{"base_weights":[9.0896375E-2,-1.2431512E-2,7.3980354E-2,1.8523717E-1,-9.500614E-2,2.8700713E-2,-8.00485E-3,-1.1340204E-2,1.1806003E-2],"categories":[],"categories_nodes":[],"categories_segments":[],"categories_sizes":[],"default_left":[0,0,0,0,0,0,0,0,0],"id":10,"left_children":[1,3,-1,5,7,-1,-1,-1,-1],"loss_changes":[1.9536529E0,4.4198152E-1,0E0,2.3895943E-1,8.7859586E-2,0E0,0E0,0E0,0E0],"parents":[2147483647,0,0,1,1,3,3,4,4],"right_children":[2,4,-1,6,8,-1,-1,-1,-1],"split_conditions":[2E0,4.867E1,7.3980354E-2,4.6982E2,1E0,2.8700713E-2,-8.00485E-3,-1.1340204E-2,1.1806003E-2],"split_indices":[4,1,0,2,4,0,0,0,0],"split_type":[0,0,0,0,0,0,0,0,0],"sum_hessian":[2.8E1,2.5E1,3E0,7E0,1.8E1,5E0,2E0,1.7E1,1E0],"tree_param":{"num_deleted":"0","num_feature":"5","num_nodes":"9","size_leaf_vector":"1"}},{"base_weights":[3.7732292E-2,-1.1526983E-2,4.585457E-1,1.1412728E-2,4.873321E-1,1.1847019E-2,5.2310234E-1,5.6819838E-2,1.2626315E-2],"categories":[],"categories_nodes":[],"categories_segments":[],"categories_sizes":[],"default_left":[0,0,0,0,0,0,0,0,0],"id":11,"left_children":[1,-1,3,-1,5,-1,7,-1,-1],"loss_changes":[2.177573E0,0E0,3.3613205E-2,0E0,4.35822E-2,0E0,5.3528428E-2,0E0,0E0],"parents":[2147483647,0,0,2,2,4,4,6,6],"right_children":[2,-1,4,-1,6,-1,8,-1,-1],"split_conditions":[1E0,-1.1526983E-2,4.902E1,1.1412728E-2,2.241E1,1.1847019E-2,2.562E1,5.6819838E-2,1.2626315E-2],"split_indices":[4,0,1,0,0,0,0,0,0],"split_type":[0,0,0,0,0,0,0,0,0],"sum_hessian":[3.2E1,2.4E1,8E0,1E0,7E0,1E0,6E0,5E0,1E0],"tree_param":{"num_deleted":"0","num_feature":"5","num_nodes":"9","size_leaf_vector":"1"}},{"base_weights":[6.43184E-2,-7.931701E-3,3.065688E-1,4.3494487E-1,-2.6825503E-2,2.6402792E-1,6.317972E-2,-2.9675493E-2,1.6206928E-2,1.4491627E-2,4.2979307E-2],"categories":[],"categories_nodes":[],"categories_segments":[],"categories_sizes":[],"default_left":[0,0,0,0,0,0,0,0,0,0,0],"id":12,"left_children":[1,-1,3,5,7,9,-1,-1,-1,-1,-1],"loss_changes":[1.0333924E0,0E0,4.8246586E-1,1.0235095E-1,2.520479E-1,5.6183368E-2,0E0,0E0,0E0,0E0,0E0],"parents":[2147483647,0,0,2,2,3,3,4,4,5,5],"right_children":[2,-1,4,6,8,10,-1,-1,-1,-1,-1],"split_conditions":[1E0,-7.931701E-3,3.072E1,6.2773E2,3.117E1,2.983E1,6.317972E-2,-2.9675493E-2,1.6206928E-2,1.4491627E-2,4.2979307E-2],"split_indices":[4,0,0,2,0,0,0,0,0,0,0],"split_type":[0,0,0,0,0,0,0,0,0,0,0],"sum_hessian":[2.8E1,1.8E1,1E1,7E0,3E0,5E0,2E0,1E0,2E0,4E0,1E0],"tree_param":{"num_deleted":"0","num_feature":"5","num_nodes":"11","size_leaf_vector":"1"}},{"base_weights":[-6.31257E-3,-8.512327E-2,4.5205202E-2,7.5764568E-3,-9.357514E-2,-1.3756065E-1,-3.9763875E-2,-1.0025487E-1,-3.299208E-2,-7.547973E-3,1.1635417E-2,-1.1962287E-1,7.5764568E-3,-1.6564531E-2,-7.0153177E-3],"categories":[],"categories_nodes":[],"categories_segments":[],"categories_sizes":[],"default_left":[0,0,0,0,0,0,0,0,0,0,0,0,0,0,0],"id":13,"left_children":[1,3,-1,-1,5,7,9,11,-1,-1,-1,13,-1,-1,-1],"loss_changes":[1.2305733E0,4.6523973E-2,0E0,0E0,6.0803697E-2,7.456601E-2,8.684484E-2,5.67912E-2,0E0,0E0,0E0,1.797676E-2,0E0,0E0,0E0],"parents":[2147483647,0,0,1,1,4,4,5,5,6,6,7,7,11,11],"right_children":[2,4,-1,-1,6,8,10,12,-1,-1,-1,14,-1,-1,-1],"split_conditions":[2E0,3.931E1,4.5205202E-2,7.5764568E-3,2.185E1,2.184E1,1E0,1E0,-3.299208E-2,-7.547973E-3,1.1635417E-2,2.163E1,7.5764568E-3,-1.6564531E-2,-7.0153177E-3],"split_indices":[4,1,0,0,0,0,4,4,0,0,0,0,0,0,0],"split_type":[0,0,0,0,0,0,0,0,0,0,0,0,0,0,0],"sum_hessian":[3.2E1,2.8E1,4E0,1E0,2.7E1,1.4E1,1.3E1,1.3E1,1E0,1.1E1,2E0,1.2E1,1E0,5E0,7E0],"tree_param":{"num_deleted":"0","num_feature":"5","num_nodes":"15","size_leaf_vector":"1"}},{"base_weights":[9.0225875E-2,7.575765E-3,6.0489513E-2,3.8493E-2,-2.2915604E-2,-7.0614754E-3,1.3990082E-2],"categories":[],"categories_nodes":[],"categories_segments":[],"categories_sizes":[],"default_left":[0,0,0,0,0,0,0],"id":14,"left_children":[1,3,-1,-1,5,-1,-1],"loss_changes":[1.2290041E0,3.0797812E-1,0E0,0E0,2.040342E-1,0E0,0E0],"parents":[2147483647,0,0,1,1,4,4],"right_children":[2,4,-1,-1,6,-1,-1],"split_conditions":[2E0,2.16E1,6.0489513E-2,3.8493E-2,1E0,-7.0614754E-3,1.3990082E-2],"split_indices":[4,0,0,0,4,0,0],"split_type":[0,0,0,0,0,0,0],"sum_hessian":[2.8E1,2.5E1,3E0,1E0,2.4E1,1.9E1,5E0],"tree_param":{"num_deleted":"0","num_feature":"5","num_nodes":"7","size_leaf_vector":"1"}},{"base_weights":[3.8146805E-2,-7.828353E-3,3.5732585E-1,7.5764568E-3,3.8305044E-1,9.056357E-3,4.1189662E-1,4.4789042E-2,9.796688E-3],"categories":[],"categories_nodes":[],"categories_segments":[],"categories_sizes":[],"default_left":[0,0,0,0,0,0,0,0,0],"id":15,"left_children":[1,-1,3,-1,5,-1,7,-1,-1],"loss_changes":[1.2543228E0,0E0,3.6165833E-2,0E0,3.0194163E-2,0E0,3.5218358E-2,0E0,0E0],"parents":[2147483647,0,0,2,2,4,4,6,6],"right_children":[2,-1,4,-1,6,-1,8,-1,-1],"split_conditions":[1E0,-7.828353E-3,4.902E1,7.5764568E-3,2.241E1,9.056357E-3,2.562E1,4.4789042E-2,9.796688E-3],"split_indices":[4,0,1,0,0,0,0,0,0],"split_type":[0,0,0,0,0,0,0,0,0],"sum_hessian":[3.2E1,2.4E1,8E0,1E0,7E0,1E0,6E0,5E0,1E0],"tree_param":{"num_deleted":"0","num_feature":"5","num_nodes":"9","size_leaf_vector":"1"}},{"base_weights":[3.7610233E-2,-4.9733776E-3,2.7605358E-1,1.8444985E-1,5.0444163E-2,6.386158E-2,3.6414314E-2,7.813849E-3,-3.7614704E-4],"categories":[],"categories_nodes":[],"categories_segments":[],"categories_sizes":[],"default_left":[0,0,0,0,0,0,0,0,0],"id":16,"left_children":[1,-1,3,5,-1,7,-1,-1,-1],"loss_changes":[7.010068E-1,0E0,9.524655E-2,1.5009648E-1,0E0,6.086603E-3,0E0,0E0,0E0],"parents":[2147483647,0,0,2,2,3,3,5,5],"right_children":[2,-1,4,6,-1,8,-1,-1,-1],"split_conditions":[1E0,-4.9733776E-3,1.2E-1,2E0,5.0444163E-2,6E-2,3.6414314E-2,7.813849E-3,-3.7614704E-4],"split_indices":[4,0,3,4,0,3,0,0,0],"split_type":[0,0,0,0,0,0,0,0,0],"sum_hessian":[3.2E1,2.4E1,8E0,7E0,1E0,5E0,2E0,4E0,1E0],"tree_param":{"num_deleted":"0","num_feature":"5","num_nodes":"9","size_leaf_vector":"1"}},{"base_weights":[-1.5049151E-2,-7.566147E-2,3.3951214E-1,-1.1716787E-1,-2.28212E-2,4.420593E-2,1.23794235E-1,-8.0686554E-2,-3.321938E-2,-4.764102E-3,8.406514E-3,3.428457E-2,-1.5715433E-2,-1.05929345E-1,5.5594402E-3,-1.7078567E-2,-4.404594E-3],"categories":[],"categories_nodes":[],"categories_segments":[],"categories_sizes":[],"default_left":[0,0,0,0,0,0,0,0,0,0,0,0,0,0,0,0,0],"id":17,"left_children":[1,3,5,7,9,-1,11,13,-1,-1,-1,-1,-1,15,-1,-1,-1],"loss_changes":[7.348838E-1,6.0929164E-2,5.5881858E-2,9.870729E-2,4.1145544E-2,0E0,2.3850624E-1,5.749076E-2,0E0,0E0,0E0,0E0,0E0,4.465349E-2,0E0,0E0,0E0],"parents":[2147483647,0,0,1,1,2,2,3,3,4,4,6,6,7,7,13,13],"right_children":[2,4,6,8,10,-1,12,14,-1,-1,-1,-1,-1,16,-1,-1,-1],"split_conditions":[2E0,2.185E1,4.601E1,2.184E1,1E0,4.420593E-2,2.124E1,1E0,-3.321938E-2,-4.764102E-3,8.406514E-3,3.428457E-2,-1.5715433E-2,2.163E1,5.5594402E-3,-1.7078567E-2,-4.404594E-3],"split_indices":[4,0,1,0,4,0,0,4,0,0,0,0,0,0,0,0,0],"split_type":[0,0,0,0,0,0,0,0,0,0,0,0,0,0,0,0,0],"sum_hessian":[3.2E1,2.8E1,4E0,1.5E1,1.3E1,2E0,2E0,1.4E1,1E0,1.1E1,2E0,1E0,1E0,1.2E1,2E0,5E0,7E0],"tree_param":{"num_deleted":"0","num_feature":"5","num_nodes":"17","size_leaf_vector":"1"}},{"base_weights":[8.7345146E-2,2.0621167E-2,4.9921475E-2,3.818458E-2,-9.101648E-3,-4.131289E-3,9.978611E-3],"categories":[],"categories_nodes":[],"categories_segments":[],"categories_sizes":[],"default_left":[0,0,0,0,0,0,0],"id":18,"left_children":[1,3,-1,-1,5,-1,-1],"loss_changes":[7.8667134E-1,2.8262734E-1,0E0,0E0,9.1807716E-2,0E0,0E0],"parents":[2147483647,0,0,1,1,4,4],"right_children":[2,4,-1,-1,6,-1,-1],"split_conditions":[2E0,2.16E1,4.9921475E-2,3.818458E-2,1E0,-4.131289E-3,9.978611E-3],"split_indices":[4,0,0,0,4,0,0],"split_type":[0,0,0,0,0,0,0],"sum_hessian":[2.8E1,2.5E1,3E0,1E0,2.4E1,1.9E1,5E0],"tree_param":{"num_deleted":"0","num_feature":"5","num_nodes":"7","size_leaf_vector":"1"}},{"base_weights":[5.81118E-2,-5.05459E-3,2.4051039E-1,3.5690758E-1,-5.2411586E-2,2.0545033E-1,5.4085292E-2,-2.9851818E-2,1.2913001E-2,1.06317345E-2,3.5055764E-2],"categories":[],"categories_nodes":[],"categories_segments":[],"categories_sizes":[],"default_left":[0,0,0,0,0,0,0,0,0,0,0],"id":19,"left_children":[1,-1,3,5,7,9,-1,-1,-1,-1,-1],"loss_changes":[5.8690816E-1,0E0,3.937543E-1,1.117605E-1,2.1726198E-1,4.9039155E-2,0E0,0E0,0E0,0E0,0E0],"parents":[2147483647,0,0,2,2,3,3,4,4,5,5],"right_children":[2,-1,4,6,8,10,-1,-1,-1,-1,-1],"split_conditions":[1E0,-5.05459E-3,3.072E1,6.2773E2,3.117E1,2.983E1,5.4085292E-2,-2.9851818E-2,1.2913001E-2,1.06317345E-2,3.5055764E-2],"split_indices":[4,0,0,2,0,0,0,0,0,0,0],"split_type":[0,0,0,0,0,0,0,0,0,0,0],"sum_hessian":[2.8E1,1.8E1,1E1,7E0,3E0,5E0,2E0,1E0,2E0,4E0,1E0],"tree_param":{"num_deleted":"0","num_feature":"5","num_nodes":"11","size_leaf_vector":"1"}},{"base_weights":[-3.0792367E-2,-7.4046366E-2,2.2623932E-1,-1.22646466E-1,-1.3214378E-2,3.24106E-2,5.295956E-2,-8.685007E-2,-3.297962E-2,-3.0294606E-3,5.951132E-3,2.7721966E-2,-1.9778032E-2,-1.3504131E-1,-2.780257E-3,-1.8001737E-2,-7.5419746E-5,-1.0714114E-3,1.0600984E-3],"categories":[],"categories_nodes":[],"categories_segments":[],"categories_sizes":[],"default_left":[0,0,0,0,0,0,0,0,0,0,0,0,0,0,0,0,0,0,0],"id":20,"left_children":[1,3,5,7,9,-1,11,13,-1,-1,-1,-1,-1,15,-1,-1,17,-1,-1],"loss_changes":[3.8363463E-1,8.411607E-2,6.762704E-2,9.0000585E-2,1.9193273E-2,0E0,2.2352143E-1,3.8929082E-2,0E0,0E0,0E0,0E0,0E0,4.8548296E-2,0E0,0E0,4.5432913E-4,0E0,0E0],"parents":[2147483647,0,0,1,1,2,2,3,3,4,4,6,6,7,7,13,13,16,16],"right_children":[2,4,6,8,10,-1,12,14,-1,-1,-1,-1,-1,16,-1,-1,18,-1,-1],"split_conditions":[2E0,2.185E1,4.601E1,2.184E1,1E0,3.24106E-2,2.124E1,2.163E1,-3.297962E-2,-3.0294606E-3,5.951132E-3,2.7721966E-2,-1.9778032E-2,1E0,-2.780257E-3,-1.8001737E-2,2.129E1,-1.0714114E-3,1.0600984E-3],"split_indices":[4,0,1,0,4,0,0,0,0,0,0,0,0,4,0,0,0,0,0],"split_type":[0,0,0,0,0,0,0,0,0,0,0,0,0,0,0,0,0,0,0],"sum_hessian":[3.2E1,2.8E1,4E0,1.5E1,1.3E1,2E0,2E0,1.4E1,1E0,1.1E1,2E0,1E0,1E0,7E0,7E0,5E0,2E0,1E0,1E0],"tree_param":{"num_deleted":"0","num_feature":"5","num_nodes":"19","size_leaf_vector":"1"}},{"base_weights":[3.8708176E-2,-3.156735E-2,2.2961706E-1,-4.5178574E-2,-2.3764176E-3,1.421414E-1,4.6471115E-2,-5.073896E-3,-1.8998273E-3,3.4534305E-2,3.0997515E-2,4.8673905E-2,-1.8081844E-3,5.873134E-3,2.2391835E-2,4.7561466E-3,-1.3973713E-3],"categories":[],"categories_nodes":[],"categories_segments":[],"categories_sizes":[],"default_left":[0,0,0,0,0,0,0,0,0,0,0,0,0,0,0,0,0],"id":21,"left_children":[1,3,5,7,-1,9,-1,-1,-1,11,-1,13,-1,-1,15,-1,-1],"loss_changes":[4.4998378E-1,1.5816372E-3,1.1903036E-1,2.0062737E-4,0E0,1.3377605E-1,0E0,0E0,0E0,5.3439406E-3,0E0,6.5490603E-6,0E0,0E0,3.4105326E-3,0E0,0E0],"parents":[2147483647,0,0,1,1,2,2,3,3,5,5,9,9,11,11,14,14],"right_children":[2,4,6,8,-1,10,-1,-1,-1,12,-1,14,-1,-1,16,-1,-1],"split_conditions":[1E0,4.902E1,1.2E-1,6E-2,-2.3764176E-3,2E0,4.6471115E-2,-5.073896E-3,-1.8998273E-3,6E-2,3.0997515E-2,4.1824E2,-1.8081844E-3,5.873134E-3,2.241E1,4.7561466E-3,-1.3973713E-3],"split_indices":[4,1,3,3,0,4,0,0,0,3,0,2,0,0,0,0,0],"split_type":[0,0,0,0,0,0,0,0,0,0,0,0,0,0,0,0,0],"sum_hessian":[3.2E1,2.4E1,8E0,7E0,1.7E1,7E0,1E0,5E0,2E0,5E0,2E0,4E0,1E0,2E0,2E0,1E0,1E0],"tree_param":{"num_deleted":"0","num_feature":"5","num_nodes":"17","size_leaf_vector":"1"}},{"base_weights":[4.4533126E-2,7.296438E-4,3.1812248E-1,-2.3058739E-2,2.977196E-2,-1.4248705E-3,4.3366246E-2,-3.6652356E-2,8.884526E-3,-1.0688504E-2,-2.0618187E-1,-3.3299536E-2,6.83267E-3,-2.9669179E-2,-1.2581035E-3,-4.821822E-2,-2.306523E-3,-5.2162386E-3,-1.4248705E-3],"categories":[],"categories_nodes":[],"categories_segments":[],"categories_sizes":[],"default_left":[0,0,0,0,0,0,0,0,0,0,0,0,0,0,0,0,0,0,0],"id":22,"left_children":[1,3,5,7,-1,-1,-1,9,-1,11,13,15,-1,-1,-1,17,-1,-1,-1],"loss_changes":[3.473087E-1,1.9055271E-1,1.5978774E-1,4.128589E-2,0E0,0E0,0E0,9.903394E-2,0E0,3.9794166E-2,4.883568E-2,1.4834348E-3,0E0,0E0,0E0,6.0641207E-5,0E0,0E0,0E0],"parents":[2147483647,0,0,1,1,2,2,3,3,7,7,9,9,10,10,11,11,15,15],"right_children":[2,4,6,8,-1,-1,-1,10,-1,12,14,16,-1,-1,-1,18,-1,-1,-1],"split_conditions":[6.9632E2,2E0,4.129E1,3.193E1,2.977196E-2,-1.4248705E-3,4.3366246E-2,3.115E1,8.884526E-3,1E0,3.117E1,4.942E1,6.83267E-3,-2.9669179E-2,-1.2581035E-3,5.7158E2,-2.306523E-3,-5.2162386E-3,-1.4248705E-3],"split_indices":[2,4,1,0,0,0,0,0,0,4,0,1,0,0,0,2,0,0,0],"split_type":[0,0,0,0,0,0,0,0,0,0,0,0,0,0,0,0,0,0,0],"sum_hessian":[2.8E1,2.5E1,3E0,2.4E1,1E0,1E0,2E0,2.2E1,2E0,2E1,2E0,1.6E1,4E0,1E0,1E0,5E0,1.1E1,4E0,1E0],"tree_param":{"num_deleted":"0","num_feature":"5","num_nodes":"19","size_leaf_vector":"1"}},{"base_weights":[8.149408E-2,2.5774874E-2,4.2329542E-2,3.7630677E-2,-3.2986735E-3,-2.271998E-2,6.198879E-3,2.5941714E-4,-2.4188838E-3],"categories":[],"categories_nodes":[],"categories_segments":[],"categories_sizes":[],"default_left":[0,0,0,0,0,0,0,0,0],"id":23,"left_children":[1,3,-1,-1,5,7,-1,-1,-1],"loss_changes":[5.413917E-1,2.6621267E-1,0E0,0E0,3.3107575E-2,8.06408E-4,0E0,0E0,0E0],"parents":[2147483647,0,0,1,1,4,4,5,5],"right_children":[2,4,-1,-1,6,8,-1,-1,-1],"split_conditions":[2E0,2.16E1,4.2329542E-2,3.7630677E-2,1E0,2.193E1,6.198879E-3,2.5941714E-4,-2.4188838E-3],"split_indices":[4,0,0,0,4,0,0,0,0],"split_type":[0,0,0,0,0,0,0,0,0],"sum_hessian":[2.8E1,2.5E1,3E0,1E0,2.4E1,1.9E1,5E0,1E0,1.8E1],"tree_param":{"num_deleted":"0","num_feature":"5","num_nodes":"9","size_leaf_vector":"1"}},{"base_weights":[7.0868686E-2,2.5544683E-2,3.4775753E-2,3.7005033E-2,-3.0375551E-3,-1.4149735E-2,3.45093E-2,1.38068E-3,-1.6347805E-2,3.8874843E-3,6.340802E-4,-3.0351777E-3,-1.3883597E-3],"categories":[],"categories_nodes":[],"categories_segments":[],"categories_sizes":[],"default_left":[0,0,0,0,0,0,0,0,0,0,0,0,0],"id":24,"left_children":[1,3,-1,-1,5,7,9,-1,11,-1,-1,-1,-1],"loss_changes":[3.5505822E-1,2.5713933E-1,0E0,0E0,1.0918982E-2,1.4547193E-3,4.913262E-4,0E0,2.3427373E-4,0E0,0E0,0E0,0E0],"parents":[2147483647,0,0,1,1,4,4,5,5,6,6,8,8],"right_children":[2,4,-1,-1,6,8,10,-1,12,-1,-1,-1,-1],"split_conditions":[2E0,2.16E1,3.4775753E-2,3.7005033E-2,1E0,2.193E1,4.0159E2,1.38068E-3,2.256E1,3.8874843E-3,6.340802E-4,-3.0351777E-3,-1.3883597E-3],"split_indices":[4,0,0,0,4,0,2,0,0,0,0,0,0],"split_type":[0,0,0,0,0,0,0,0,0,0,0,0,0],"sum_hessian":[2.8E1,2.5E1,3E0,1E0,2.4E1,1.9E1,5E0,1E0,1.8E1,4E0,1E0,1E0,1.7E1],"tree_param":{"num_deleted":"0","num_feature":"5","num_nodes":"13","size_leaf_vector":"1"}},{"base_weights":[3.1608254E-2,-3.771492E-3,2.5367454E-1,-2.4407081E-2,2.5605911E-2,-9.862185E-4,3.448075E-2,-8.784891E-3,-8.513886E-2,-2.2711474E-2,4.0322472E-3,-2.9086877E-2,3.9010804E-2,-3.679274E-2,-1.3778218E-3,-8.039602E-4,5.737414E-3,-4.0206416E-3,-9.862185E-4],"categories":[],"categories_nodes":[],"categories_segments":[],"categories_sizes":[],"default_left":[0,0,0,0,0,0,0,0,0,0,0,0,0,0,0,0,0,0,0],"id":25,"left_children":[1,3,5,7,-1,-1,-1,9,11,13,-1,-1,15,17,-1,-1,-1,-1,-1],"loss_changes":[2.2879952E-1,1.4565535E-1,9.946811E-2,2.297115E-2,0E0,0E0,0E0,1.5277636E-2,1.3905352E-1,1.6315179E-3,0E0,0E0,3.917275E-3,1.5506987E-4,0E0,0E0,0E0,0E0,0E0],"parents":[2147483647,0,0,1,1,2,2,3,3,7,7,8,8,9,9,12,12,13,13],"right_children":[2,4,6,8,-1,-1,-1,10,12,14,-1,-1,16,18,-1,-1,-1,-1,-1],"split_conditions":[6.9632E2,2E0,4.129E1,3.115E1,2.5605911E-2,-9.862185E-4,3.448075E-2,1E0,3.117E1,4.942E1,4.0322472E-3,-2.9086877E-2,3.193E1,5.7158E2,-1.3778218E-3,-8.039602E-4,5.737414E-3,-4.0206416E-3,-9.862185E-4],"split_indices":[2,4,1,0,0,0,0,4,0,1,0,0,0,2,0,0,0,0,0],"split_type":[0,0,0,0,0,0,0,0,0,0,0,0,0,0,0,0,0,0,0],"sum_hessian":[2.8E1,2.5E1,3E0,2.4E1,1E0,1E0,2E0,2E1,4E0,1.6E1,4E0,1E0,3E0,5E0,1.1E1,1E0,2E0,4E0,1E0],"tree_param":{"num_deleted":"0","num_feature":"5","num_nodes":"19","size_leaf_vector":"1"}},{"base_weights":[3.535037E-2,-2.2387404E-2,1.9180526E-1,-3.8747653E-2,-1.3872439E-3,1.0778487E-1,4.3198418E-2,-1.5869243E-3,-4.3728915E-3,1.6499242E-2,2.5442783E-2,3.0466747E-2,-2.6669146E-3,4.216081E-3,8.617103E-3,3.5692067E-3,-2.276641E-3],"categories":[],"categories_nodes":[],"categories_segments":[],"categories_sizes":[],"default_left":[0,0,0,0,0,0,0,0,0,0,0,0,0,0,0,0,0],"id":26,"left_children":[1,3,5,7,-1,9,-1,-1,-1,11,-1,13,-1,-1,15,-1,-1],"loss_changes":[3.023948E-1,2.9451493E-3,1.3505802E-1,2.1776184E-4,0E0,1.02893285E-1,0E0,0E0,0E0,4.4302503E-3,0E0,9.142519E-4,0E0,0E0,3.3617024E-3,0E0,0E0],"parents":[2147483647,0,0,1,1,2,2,3,3,5,5,9,9,11,11,14,14],"right_children":[2,4,6,8,-1,10,-1,-1,-1,12,-1,14,-1,-1,16,-1,-1],"split_conditions":[1E0,4.902E1,1.2E-1,4.324E1,-1.3872439E-3,2E0,4.3198418E-2,-1.5869243E-3,-4.3728915E-3,6E-2,2.5442783E-2,4.1824E2,-2.6669146E-3,4.216081E-3,2.241E1,3.5692067E-3,-2.276641E-3],"split_indices":[4,1,3,1,0,4,0,0,0,3,0,2,0,0,0,0,0],"split_type":[0,0,0,0,0,0,0,0,0,0,0,0,0,0,0,0,0],"sum_hessian":[3.2E1,2.4E1,8E0,7E0,1.7E1,7E0,1E0,2E0,5E0,5E0,2E0,4E0,1E0,2E0,2E0,1E0,1E0],"tree_param":{"num_deleted":"0","num_feature":"5","num_nodes":"17","size_leaf_vector":"1"}},{"base_weights":[-5.159554E-2,-7.99221E-2,1.2301765E-1,-1.3149847E-1,-1.5268957E-2,2.234505E-2,-1.8421093E-2,-9.723054E-2,-3.2275874E-2,-2.8548982E-2,4.2940797E-3,2.1180917E-2,-2.394408E-2,-1.615089E-1,-2.0798363E-3,-4.16208E-2,-1.3266144E-3,-1.9176422E-2,-4.716198E-3,-1.1201336E-3,-4.5464425E-3],"categories":[],"categories_nodes":[],"categories_segments":[],"categories_sizes":[],"default_left":[0,0,0,0,0,0,0,0,0,0,0,0,0,0,0,0,0,0,0,0,0],"id":27,"left_children":[1,3,5,7,9,-1,11,13,-1,15,-1,-1,-1,17,-1,19,-1,-1,-1,-1,-1],"loss_changes":[1.7305616E-1,9.469481E-2,7.514169E-2,7.34835E-2,1.2048294E-2,0E0,2.0337203E-1,7.033491E-2,0E0,1.8451456E-3,0E0,0E0,0E0,1.863283E-2,0E0,1.922641E-4,0E0,0E0,0E0,0E0,0E0],"parents":[2147483647,0,0,1,1,2,2,3,3,4,4,6,6,7,7,9,9,13,13,15,15],"right_children":[2,4,6,8,10,-1,12,14,-1,16,-1,-1,-1,18,-1,20,-1,-1,-1,-1,-1],"split_conditions":[2E0,2.185E1,4.601E1,2.184E1,1E0,2.234505E-2,2.124E1,2.163E1,-3.2275874E-2,5.127E1,4.2940797E-3,2.1180917E-2,-2.394408E-2,1E0,-2.0798363E-3,2.194E1,-1.3266144E-3,-1.9176422E-2,-4.716198E-3,-1.1201336E-3,-4.5464425E-3],"split_indices":[4,0,1,0,4,0,0,0,0,1,0,0,0,4,0,0,0,0,0,0,0],"split_type":[0,0,0,0,0,0,0,0,0,0,0,0,0,0,0,0,0,0,0,0,0],"sum_hessian":[3.2E1,2.8E1,4E0,1.5E1,1.3E1,2E0,2E0,1.4E1,1E0,1.1E1,2E0,1E0,1E0,7E0,7E0,5E0,6E0,5E0,2E0,1E0,4E0],"tree_param":{"num_deleted":"0","num_feature":"5","num_nodes":"21","size_leaf_vector":"1"}},{"base_weights":[3.314079E-2,-1.5932595E-2,1.6577344E-1,-3.209883E-2,-7.86246E-3,8.5018925E-2,4.0590476E-2,-9.185804E-3,-3.8205534E-3,-5.1891962E-5,-8.74797E-4,6.771475E-3,2.1317419E-2,-1.1583391E-3,-2.1953158E-4,2.0702804E-2,-3.1442584E-3,3.2292008E-3,2.2126634E-3,2.942726E-3,-2.6108266E-3],"categories":[],"categories_nodes":[],"categories_segments":[],"categories_sizes":[],"default_left":[0,0,0,0,0,0,0,0,0,0,0,0,0,0,0,0,0,0,0,0,0],"id":28,"left_children":[1,3,5,7,9,11,-1,13,-1,-1,-1,15,-1,-1,-1,17,-1,-1,19,-1,-1],"loss_changes":[2.1742938E-1,3.0092169E-3,1.4001562E-1,7.6843705E-4,1.1251052E-4,7.877907E-2,0E0,2.4851703E-5,0E0,0E0,0E0,3.845185E-3,0E0,0E0,0E0,9.99979E-4,0E0,0E0,3.0805226E-3,0E0,0E0],"parents":[2147483647,0,0,1,1,2,2,3,3,4,4,5,5,7,7,11,11,15,15,18,18],"right_children":[2,4,6,8,10,12,-1,14,-1,-1,-1,16,-1,-1,-1,18,-1,-1,20,-1,-1],"split_conditions":[1E0,4.902E1,1.2E-1,4.324E1,5.168E1,2E0,4.0590476E-2,2.463E1,-3.8205534E-3,-5.1891962E-5,-8.74797E-4,6E-2,2.1317419E-2,-1.1583391E-3,-2.1953158E-4,4.1824E2,-3.1442584E-3,3.2292008E-3,2.241E1,2.942726E-3,-2.6108266E-3],"split_indices":[4,1,3,1,1,4,0,0,0,0,0,3,0,0,0,2,0,0,0,0,0],"split_type":[0,0,0,0,0,0,0,0,0,0,0,0,0,0,0,0,0,0,0,0,0],"sum_hessian":[3.2E1,2.4E1,8E0,7E0,1.7E1,7E0,1E0,2E0,5E0,2E0,1.5E1,5E0,2E0,1E0,1E0,4E0,1E0,2E0,2E0,1E0,1E0],"tree_param":{"num_deleted":"0","num_feature":"5","num_nodes":"21","size_leaf_vector":"1"}},{"base_weights":[6.265345E-2,2.530194E-2,2.897749E-2,3.6533277E-2,-2.9126038E-3,7.0907734E-3,-1.8626748E-2,1.7075684E-2,-8.1863516E-4,-4.4717635E-3,-1.0759134E-2,7.0170397E-3,2.573092E-3,-7.1693724E-4,-1.9738616E-3,2.4087203E-3,-1.2144337E-3,3.2698302E-4,-5.293886E-4],"categories":[],"categories_nodes":[],"categories_segments":[],"categories_sizes":[],"default_left":[0,0,0,0,0,0,0,0,0,0,0,0,0,0,0,0,0,0,0],"id":29,"left_children":[1,3,-1,-1,5,7,9,11,-1,-1,13,15,-1,-1,-1,-1,17,-1,-1],"loss_changes":[2.3868465E-1,2.5050327E-1,0E0,0E0,4.0619406E-3,2.5804392E-3,1.5716073E-3,6.9004414E-4,0E0,0E0,1.4859426E-4,8.7232783E-4,0E0,0E0,0E0,0E0,1.0877681E-4,0E0,0E0],"parents":[2147483647,0,0,1,1,4,4,5,5,6,6,7,7,10,10,11,11,16,16],"right_children":[2,4,-1,-1,6,8,10,12,-1,-1,14,16,-1,-1,-1,-1,18,-1,-1],"split_conditions":[2E0,2.16E1,2.897749E-2,3.6533277E-2,2.088E1,5.376E1,2.256E1,1E0,-8.1863516E-4,-4.4717635E-3,2.847E1,2.193E1,2.573092E-3,-7.1693724E-4,-1.9738616E-3,2.4087203E-3,5.035E1,3.2698302E-4,-5.293886E-4],"split_indices":[4,0,0,0,3,1,0,4,0,0,0,0,0,0,0,0,1,0,0],"split_type":[0,0,0,0,0,0,0,0,0,0,0,0,0,0,0,0,0,0,0],"sum_hessian":[2.8E1,2.5E1,3E0,1E0,2.4E1,1.5E1,9E0,9E0,6E0,1E0,8E0,5E0,4E0,7E0,1E0,1E0,4E0,2E0,2E0],"tree_param":{"num_deleted":"0","num_feature":"5","num_nodes":"19","size_leaf_vector":"1"}},{"base_weights":[2.171755E-2,-6.768842E-3,2.0144972E-1,-2.5049105E-2,2.2511888E-2,2.5186969E-2,3.6511898E-2,-6.9941115E-3,-9.587026E-2,4.3388666E-3,-5.6082115E-4,-1.4531778E-2,2.0032775E-2,-2.8252413E-2,2.1424245E-2,-2.5548058E-2,-7.8126567E-4,-1.385808E-4,2.5733875E-3,-7.9477683E-4,5.4770145E-3,-2.8971578E-3,-4.2152285E-4],"categories":[],"categories_nodes":[],"categories_segments":[],"categories_sizes":[],"default_left":[0,0,0,0,0,0,0,0,0,0,0,0,0,0,0,0,0,0,0,0,0,0,0],"id":30,"left_children":[1,3,5,7,-1,9,-1,11,13,-1,-1,15,17,-1,19,21,-1,-1,-1,-1,-1,-1,-1],"loss_changes":[1.498413E-1,1.1585221E-1,1.0619892E-1,3.1296358E-2,0E0,1.9249064E-3,0E0,4.569225E-3,1.1552023E-1,0E0,0E0,1.0587368E-3,6.462096E-4,0E0,4.3530446E-3,3.1607877E-4,0E0,0E0,0E0,0E0,0E0,0E0,0E0],"parents":[2147483647,0,0,1,1,2,2,3,3,5,5,7,7,8,8,11,11,12,12,14,14,15,15],"right_children":[2,4,6,8,-1,10,-1,12,14,-1,-1,16,18,-1,20,22,-1,-1,-1,-1,-1,-1,-1],"split_conditions":[6.9632E2,2E0,2.448E1,3.115E1,2.2511888E-2,2.402E1,3.6511898E-2,1E0,3.117E1,4.3388666E-3,-5.6082115E-4,4.942E1,2.565E1,-2.8252413E-2,3.199E1,5.7158E2,-7.8126567E-4,-1.385808E-4,2.5733875E-3,-7.9477683E-4,5.4770145E-3,-2.8971578E-3,-4.2152285E-4],"split_indices":[2,4,0,0,0,0,0,4,0,0,0,1,0,0,0,2,0,0,0,0,0,0,0],"split_type":[0,0,0,0,0,0,0,0,0,0,0,0,0,0,0,0,0,0,0,0,0,0,0],"sum_hessian":[2.8E1,2.5E1,3E0,2.4E1,1E0,2E0,1E0,2E1,4E0,1E0,1E0,1.6E1,4E0,1E0,3E0,5E0,1.1E1,1E0,3E0,2E0,1E0,4E0,1E0],"tree_param":{"num_deleted":"0","num_feature":"5","num_nodes":"23","size_leaf_vector":"1"}},{"base_weights":[-6.917026E-2,-1.0716309E-1,-2.4764468E-3,-1.3083309E-1,7.8467935E-2,-2.9116366E-2,6.474246E-2,-8.15432E-2,-2.9528436E-1,-1.0045038E-3,1.2774694E-2,-4.967008E-3,-7.1355444E-4,1.2859553E-3,7.7750245E-3,-1.0808694E-1,1.5830649E-2,-7.499044E-4,-3.8871314E-2,-1.8559942E-2,-1.7063611E-3],"categories":[],"categories_nodes":[],"categories_segments":[],"categories_sizes":[],"default_left":[0,0,0,0,0,0,0,0,0,0,0,0,0,0,0,0,0,0,0,0,0],"id":31,"left_children":[1,3,5,7,9,11,13,15,17,-1,-1,-1,-1,-1,-1,19,-1,-1,-1,-1,-1],"loss_changes":[8.3352864E-2,1.0253781E-1,2.5164245E-2,1.2993148E-1,1.4368717E-2,4.1634515E-3,1.6996935E-3,1.18974976E-1,1.0463473E-1,0E0,0E0,0E0,0E0,0E0,0E0,1.0266465E-1,0E0,0E0,0E0,0E0,0E0],"parents":[2147483647,0,0,1,1,2,2,3,3,4,4,5,5,6,6,7,7,8,8,15,15],"right_children":[2,4,6,8,10,12,14,16,18,-1,-1,-1,-1,-1,-1,20,-1,-1,-1,-1,-1],"split_conditions":[2.194E1,5.831E1,1E0,2.184E1,4.295E1,5.127E1,2.202E1,2E0,1E0,-1.0045038E-3,1.2774694E-2,-4.967008E-3,-7.1355444E-4,1.2859553E-3,7.7750245E-3,2.163E1,1.5830649E-2,-7.499044E-4,-3.8871314E-2,-1.8559942E-2,-1.7063611E-3],"split_indices":[0,3,4,0,1,1,0,4,4,0,0,0,0,0,0,0,0,0,0,0,0],"split_type":[0,0,0,0,0,0,0,0,0,0,0,0,0,0,0,0,0,0,0,0,0],"sum_hessian":[3.2E1,2E1,1.2E1,1.8E1,2E0,9E0,3E0,1.5E1,3E0,1E0,1E0,4E0,5E0,1E0,2E0,1.4E1,1E0,1E0,2E0,7E0,7E0],"tree_param":{"num_deleted":"0","num_feature":"5","num_nodes":"21","size_leaf_vector":"1"}},{"base_weights":[1.2048784E-2,-1.1332871E-2,1.6101734E-1,-2.6572425E-2,1.8482799E-2,4.2734822E-4,3.213937E-2,-6.5802364E-3,-1.0522513E-1,2.5476815E-4,-1.906659E-4,-1.9194016E-2,-1.4388043E-3,-2.7518658E-2,6.061873E-3,4.7842265E-4,-2.4946511E-3,-4.852568E-3,1.4971694E-3,-2.20795E-2,4.5242994E-3,-6.460482E-3,-6.662268E-4,-3.9856313E-4,-2.9133619E-3,-1.1889216E-3,-4.536265E-3,9.795588E-5,-2.0899368E-3,-2.8636494E-5,-5.709613E-4,-5.3127278E-5,-2.6036325E-4],"categories":[],"categories_nodes":[],"categories_segments":[],"categories_sizes":[],"default_left":[0,0,0,0,0,0,0,0,0,0,0,0,0,0,0,0,0,0,0,0,0,0,0,0,0,0,0,0,0,0,0,0,0],"id":32,"left_children":[1,3,5,7,-1,9,-1,11,13,-1,-1,15,17,-1,19,-1,-1,21,-1,23,-1,25,27,-1,-1,-1,29,-1,31,-1,-1,-1,-1],"loss_changes":[1.028356E-1,8.263583E-2,1.0288198E-1,3.8618587E-2,0E0,1.9704177E-5,0E0,1.3342942E-3,9.624064E-2,0E0,0E0,9.4695785E-4,9.68996E-4,0E0,5.409385E-3,0E0,0E0,8.993369E-5,0E0,2.6679295E-4,0E0,5.0527975E-5,1.3762823E-5,0E0,0E0,0E0,4.3244465E-5,0E0,1.0187969E-6,0E0,0E0,0E0,0E0],"parents":[2147483647,0,0,1,1,2,2,3,3,5,5,7,7,8,8,11,11,12,12,14,14,17,17,19,19,21,21,22,22,26,26,28,28],"right_children":[2,4,6,8,-1,10,-1,12,14,-1,-1,16,18,-1,20,-1,-1,22,-1,24,-1,26,28,-1,-1,-1,30,-1,32,-1,-1,-1,-1],"split_conditions":[6.9632E2,2E0,2.448E1,3.115E1,1.8482799E-2,2.402E1,3.213937E-2,4.678E1,3.117E1,2.5476815E-4,-1.906659E-4,4.205E1,1E0,-2.7518658E-2,3.199E1,4.7842265E-4,-2.4946511E-3,4.632E1,1.4971694E-3,3.193E1,4.5242994E-3,2.282E1,4.988E1,-3.9856313E-4,-2.9133619E-3,-1.1889216E-3,5.148E1,9.795588E-5,2.232E1,-2.8636494E-5,-5.709613E-4,-5.3127278E-5,-2.6036325E-4],"split_indices":[2,4,0,0,0,0,0,1,0,0,0,1,4,0,0,0,0,3,0,0,0,0,1,0,0,0,1,0,0,0,0,0,0],"split_type":[0,0,0,0,0,0,0,0,0,0,0,0,0,0,0,0,0,0,0,0,0,0,0,0,0,0,0,0,0,0,0,0,0],"sum_hessian":[2.8E1,2.5E1,3E0,2.4E1,1E0,2E0,1E0,2E1,4E0,1E0,1E0,5E0,1.5E1,1E0,3E0,1E0,4E0,1.3E1,2E0,2E0,1E0,9E0,4E0,1E0,1E0,1E0,8E0,2E0,2E0,2E0,6E0,1E0,1E0],"tree_param":{"num_deleted":"0","num_feature":"5","num_nodes":"33","size_leaf_vector":"1"}},{"base_weights":[5.235695E-2,3.4403767E-2,2.9652722E-2,-3.4831204E-3,2.2933856E-2,5.8367774E-3,-2.8282396E-2,1.4727464E-2,-5.6781474E-4,2.2050015E-4,-3.373113E-2,3.2579394E-3,9.684332E-3,-5.0601135E-3,-2.0236904E-2,4.561238E-3,1.3895178E-3,-3.1855481E-3,-4.4221166E-3,8.505132E-3,-2.2176998E-3,9.309361E-6,-4.30946E-4,1.0841654E-3,7.477823E-5,-3.325869E-4,-6.807968E-8],"categories":[],"categories_nodes":[],"categories_segments":[],"categories_sizes":[],"default_left":[0,0,0,0,0,0,0,0,0,0,0,0,0,0,0,0,0,0,0,0,0,0,0,0,0,0,0],"id":33,"left_children":[1,-1,3,5,-1,7,9,11,-1,-1,13,-1,15,-1,17,19,-1,21,-1,23,25,-1,-1,-1,-1,-1,-1],"loss_changes":[1.818475E-1,0E0,1.8606804E-1,5.9432457E-3,0E0,2.0287607E-3,1.237201E-3,6.748163E-4,0E0,0E0,3.4187594E-4,0E0,1.5234633E-4,0E0,1.9039521E-3,1.7927428E-4,0E0,1.51407985E-5,0E0,6.439365E-5,7.368232E-6,0E0,0E0,0E0,0E0,0E0,0E0],"parents":[2147483647,0,0,2,2,3,3,5,5,6,6,7,7,10,10,12,12,14,14,15,15,17,17,19,19,20,20],"right_children":[2,-1,4,6,-1,8,10,12,-1,-1,14,-1,16,-1,18,20,-1,22,-1,24,26,-1,-1,-1,-1,-1,-1],"split_conditions":[2.16E1,3.4403767E-2,2E0,6.971E1,2.2933856E-2,5.376E1,4.12E1,2.193E1,-5.6781474E-4,2.2050015E-4,2.256E1,3.2579394E-3,1E0,-5.0601135E-3,2.801E1,5.035E1,1.3895178E-3,2.633E1,-4.4221166E-3,2.463E1,2.404E1,9.309361E-6,-4.30946E-4,1.0841654E-3,7.477823E-5,-3.325869E-4,-6.807968E-8],"split_indices":[0,0,4,3,0,1,1,0,0,0,0,0,4,0,0,1,0,0,0,0,0,0,0,0,0,0,0],"split_type":[0,0,0,0,0,0,0,0,0,0,0,0,0,0,0,0,0,0,0,0,0,0,0,0,0,0,0],"sum_hessian":[2.8E1,1E0,2.7E1,2.4E1,3E0,1.8E1,6E0,1E1,8E0,1E0,5E0,1E0,9E0,1E0,4E0,5E0,4E0,3E0,1E0,3E0,2E0,1E0,2E0,2E0,1E0,1E0,1E0],"tree_param":{"num_deleted":"0","num_feature":"5","num_nodes":"27","size_leaf_vector":"1"}},{"base_weights":[2.8415961E-2,-1.218141E-2,1.380291E-1,-7.824807E-3,-5.8369935E-3,5.9732594E-2,3.822006E-2,-1.5527791E-2,-4.3944907E-3,-8.30392E-5,1.5945299E-2,-1.867677E-3,1.6830412E-4,4.5404636E-4,-5.7951396E-4,1.321212E-2,-3.327942E-3,1.2376755E-3,3.055495E-3,2.0458123E-2,-2.8211833E-3,2.454698E-3,6.140202E-4],"categories":[],"categories_nodes":[],"categories_segments":[],"categories_sizes":[],"default_left":[0,0,0,0,0,0,0,0,0,0,0,0,0,0,0,0,0,0,0,0,0,0,0],"id":34,"left_children":[1,3,5,7,-1,9,-1,11,13,15,-1,-1,-1,-1,-1,17,-1,19,-1,21,-1,-1,-1],"loss_changes":[1.4853159E-1,4.573893E-3,1.4923015E-1,5.659312E-4,0E0,4.773196E-2,0E0,4.1080953E-4,2.5157773E-4,3.0877986E-3,0E0,0E0,0E0,0E0,0E0,1.0005366E-3,0E0,2.8412917E-3,0E0,2.4908455E-5,0E0,0E0,0E0],"parents":[2147483647,0,0,1,1,2,2,3,3,5,5,7,7,8,8,9,9,15,15,17,17,19,19],"right_children":[2,4,6,8,-1,10,-1,12,14,16,-1,-1,-1,-1,-1,18,-1,20,-1,22,-1,-1,-1],"split_conditions":[1E0,1.12129E3,1.2E-1,4.902E1,-5.8369935E-3,2E0,3.822006E-2,6E-2,5.168E1,6E-2,1.5945299E-2,-1.867677E-3,1.6830412E-4,4.5404636E-4,-5.7951396E-4,2.53E1,-3.327942E-3,2.491E1,3.055495E-3,2.241E1,-2.8211833E-3,2.454698E-3,6.140202E-4],"split_indices":[4,2,3,1,0,4,0,3,1,3,0,0,0,0,0,0,0,0,0,0,0,0,0],"split_type":[0,0,0,0,0,0,0,0,0,0,0,0,0,0,0,0,0,0,0,0,0,0,0],"sum_hessian":[3.2E1,2.4E1,8E0,2.3E1,1E0,7E0,1E0,6E0,1.7E1,5E0,2E0,5E0,1E0,2E0,1.5E1,4E0,1E0,3E0,1E0,2E0,1E0,1E0,1E0],"tree_param":{"num_deleted":"0","num_feature":"5","num_nodes":"23","size_leaf_vector":"1"}},{"base_weights":[-8.072465E-2,-1.2206586E-1,-7.7331117E-3,-1.4190674E-1,4.4281654E-2,-2.4264866E-2,3.5529554E-2,-9.506119E-2,-2.9381225E-1,-8.8971667E-4,7.5319647E-3,-9.082559E-3,-5.6662736E-3,9.3847216E-4,4.1116257E-3,-1.7850639E-1,-1.0325318E-2,-5.886742E-4,-3.878252E-2,-1.6013399E-3,-4.103379E-3,-1.9855358E-2,-1.9088062E-3,1.139878E-2,-4.0112935E-2,-4.7115455E-4,-5.3127278E-5,-1.2683622E-2,-9.604436E-4],"categories":[],"categories_nodes":[],"categories_segments":[],"categories_sizes":[],"default_left":[0,0,0,0,0,0,0,0,0,0,0,0,0,0,0,0,0,0,0,0,0,0,0,0,0,0,0,0,0],"id":35,"left_children":[1,3,5,7,9,11,13,15,17,-1,-1,19,-1,-1,-1,21,23,-1,-1,-1,25,-1,-1,-1,27,-1,-1,-1,-1],"loss_changes":[9.8635495E-2,7.559398E-2,1.0159821E-2,1.07275665E-1,5.6218235E-3,4.404101E-3,1.983894E-4,1.11289695E-1,1.0599184E-1,0E0,0E0,2.1037017E-4,0E0,0E0,0E0,2.1777093E-2,3.7899308E-2,0E0,0E0,0E0,1.0531505E-5,0E0,0E0,0E0,1.9948184E-2,0E0,0E0,0E0,0E0],"parents":[2147483647,0,0,1,1,2,2,3,3,4,4,5,5,6,6,7,7,8,8,11,11,15,15,16,16,20,20,24,24],"right_children":[2,4,6,8,10,12,14,16,18,-1,-1,20,-1,-1,-1,22,24,-1,-1,-1,26,-1,-1,-1,28,-1,-1,-1,-1],"split_conditions":[2.194E1,5.831E1,1E0,2.184E1,4.295E1,5.2241E2,2.202E1,5.459E1,1E0,-8.8971667E-4,7.5319647E-3,4.838E1,-5.6662736E-3,9.3847216E-4,4.1116257E-3,2.163E1,2.124E1,-5.886742E-4,-3.878252E-2,-1.6013399E-3,4.1669E2,-1.9855358E-2,-1.9088062E-3,1.139878E-2,2.148E1,-4.7115455E-4,-5.3127278E-5,-1.2683622E-2,-9.604436E-4],"split_indices":[0,3,4,0,1,2,0,1,4,0,0,1,0,0,0,0,0,0,0,0,2,0,0,0,0,0,0,0,0],"split_type":[0,0,0,0,0,0,0,0,0,0,0,0,0,0,0,0,0,0,0,0,0,0,0,0,0,0,0,0,0],"sum_hessian":[3.2E1,2E1,1.2E1,1.8E1,2E0,9E0,3E0,1.5E1,3E0,1E0,1E0,7E0,2E0,1E0,2E0,7E0,8E0,1E0,2E0,2E0,5E0,6E0,1E0,1E0,7E0,4E0,1E0,1E0,6E0],"tree_param":{"num_deleted":"0","num_feature":"5","num_nodes":"29","size_leaf_vector":"1"}},{"base_weights":[-9.040742E-2,-1.341747E-1,-1.275202E-2,-1.638844E-1,-6.3267857E-4,-5.4273685E-4,-5.3268718E-3,-1.891975E-1,1.7309237E-2,-5.8670864E-3,2.635038E-3,-2.3711536E-2,-1.0056063E-1,-5.771446E-4,3.17353E-3,-1.5554733E-3,5.068668E-4,2.4615875E-2,-2.7566794E-2,6.2448083E-4,-1.4902583E-3,7.3872446E-3,-6.166381E-4,-2.7664247E-4,2.4452864E-4],"categories":[],"categories_nodes":[],"categories_segments":[],"categories_sizes":[],"default_left":[0,0,0,0,0,0,0,0,0,0,0,0,0,0,0,0,0,0,0,0,0,0,0,0,0],"id":36,"left_children":[1,3,5,7,-1,9,-1,11,13,15,-1,-1,17,-1,-1,-1,19,21,-1,-1,23,-1,-1,-1,-1],"loss_changes":[1.1044827E-1,7.872793E-2,6.4019263E-3,8.1246644E-2,0E0,1.7296717E-3,0E0,3.986478E-2,1.1820488E-3,6.253702E-4,0E0,0E0,1.6022104E-1,0E0,0E0,0E0,8.952209E-5,8.0366675E-3,0E0,0E0,3.6899153E-5,0E0,0E0,0E0,0E0],"parents":[2147483647,0,0,1,1,2,2,3,3,5,5,7,7,8,8,9,9,12,12,16,16,17,17,20,20],"right_children":[2,4,6,8,-1,10,-1,12,14,16,-1,-1,18,-1,-1,-1,20,22,-1,-1,24,-1,-1,-1,-1],"split_conditions":[2.194E1,6.175E1,9.6534E2,5.831E1,-6.3267857E-4,6.389E1,-5.3268718E-3,5.459E1,4.295E1,4.838E1,2.635038E-3,-2.3711536E-2,5.862E1,-5.771446E-4,3.17353E-3,-1.5554733E-3,4.917E1,2.124E1,-2.7566794E-2,6.2448083E-4,4.1669E2,7.3872446E-3,-6.166381E-4,-2.7664247E-4,2.4452864E-4],"split_indices":[0,1,2,3,0,1,0,1,1,1,0,0,1,0,0,0,1,0,0,0,2,0,0,0,0],"split_type":[0,0,0,0,0,0,0,0,0,0,0,0,0,0,0,0,0,0,0,0,0,0,0,0,0],"sum_hessian":[3.2E1,2E1,1.2E1,1.6E1,4E0,1E1,2E0,1.4E1,2E0,9E0,1E0,8E0,6E0,1E0,1E0,3E0,6E0,4E0,2E0,1E0,5E0,1E0,3E0,4E0,1E0],"tree_param":{"num_deleted":"0","num_feature":"5","num_nodes":"25","size_leaf_vector":"1"}},{"base_weights":[2.3731908E-2,-1.0790205E-2,1.16989784E-1,-5.4706247E-3,-6.9230064E-3,4.147099E-2,3.6057007E-2,-1.1328166E-2,-2.888768E-3,-3.940642E-3,1.1847059E-2,-1.3923848E-3,2.1229587E-4,3.8481827E-4,-3.9713983E-3,8.925605E-3,-3.4135939E-3,-1.5508638E-4,-4.206413E-4,-2.09634E-3,2.6506693E-3,1.67527E-2,-2.932173E-3,2.0799132E-3,4.3299198E-4],"categories":[],"categories_nodes":[],"categories_segments":[],"categories_sizes":[],"default_left":[0,0,0,0,0,0,0,0,0,0,0,0,0,0,0,0,0,0,0,0,0,0,0,0,0],"id":37,"left_children":[1,3,5,7,-1,9,-1,11,13,15,-1,-1,-1,-1,17,19,-1,-1,-1,21,-1,23,-1,-1,-1],"loss_changes":[1.0750449E-1,7.393157E-3,1.5060082E-1,3.3023552E-4,0E0,2.844027E-2,0E0,2.7396355E-4,1.4656792E-4,2.6356843E-3,0E0,0E0,0E0,0E0,2.578221E-6,1.0244559E-3,0E0,0E0,0E0,2.543908E-3,0E0,6.0745166E-5,0E0,0E0,0E0],"parents":[2147483647,0,0,1,1,2,2,3,3,5,5,7,7,8,8,9,9,14,14,15,15,19,19,21,21],"right_children":[2,4,6,8,-1,10,-1,12,14,16,-1,-1,-1,-1,18,20,-1,-1,-1,22,-1,24,-1,-1,-1],"split_conditions":[1E0,1.12129E3,1.2E-1,4.902E1,-6.9230064E-3,2E0,3.6057007E-2,6E-2,5.168E1,6E-2,1.1847059E-2,-1.3923848E-3,2.1229587E-4,3.8481827E-4,2.3E1,2.53E1,-3.4135939E-3,-1.5508638E-4,-4.206413E-4,2.491E1,2.6506693E-3,2.241E1,-2.932173E-3,2.0799132E-3,4.3299198E-4],"split_indices":[4,2,3,1,0,4,0,3,1,3,0,0,0,0,0,0,0,0,0,0,0,0,0,0,0],"split_type":[0,0,0,0,0,0,0,0,0,0,0,0,0,0,0,0,0,0,0,0,0,0,0,0,0],"sum_hessian":[3.2E1,2.4E1,8E0,2.3E1,1E0,7E0,1E0,6E0,1.7E1,5E0,2E0,5E0,1E0,2E0,1.5E1,4E0,1E0,2E0,1.3E1,3E0,1E0,2E0,1E0,1E0,1E0],"tree_param":{"num_deleted":"0","num_feature":"5","num_nodes":"25","size_leaf_vector":"1"}},{"base_weights":[4.348409E-3,-6.819254E-2,4.611694E-2,-2.1870682E-2,-2.6570559E-2,2.8346336E-2,1.7183062E-2,2.6423682E-2,-3.7247233E-2,6.545687E-5,1.54091185E-2,9.330041E-5,3.8702518E-3,-1.0660529E-2,-5.106715E-2,-1.5796497E-3,8.269171E-3,2.6667118E-5,-1.439182E-3,-5.759568E-4,-6.0954154E-3,-4.810814E-3,4.0688985E-3,-2.4265051E-5,1.2646407E-3,-1.010233E-3,-3.1003864E-3,5.741783E-4,4.8208585E-5,-8.857721E-5,-4.0600644E-4],"categories":[],"categories_nodes":[],"categories_segments":[],"categories_sizes":[],"default_left":[0,0,0,0,0,0,0,0,0,0,0,0,0,0,0,0,0,0,0,0,0,0,0,0,0,0,0,0,0,0,0],"id":38,"left_children":[1,3,5,7,-1,-1,9,11,13,15,-1,-1,-1,17,19,21,23,-1,-1,-1,-1,25,27,-1,-1,-1,29,-1,-1,-1,-1],"loss_changes":[9.1012776E-2,9.482974E-2,1.2560892E-1,8.410216E-3,0E0,0E0,4.217362E-2,9.028781E-4,2.395006E-3,2.4249412E-4,0E0,0E0,0E0,1.6692808E-4,1.8887119E-3,2.9334548E-4,1.1484341E-4,0E0,0E0,0E0,0E0,5.9186394E-5,3.323392E-5,0E0,0E0,0E0,1.5531557E-5,0E0,0E0,0E0,0E0],"parents":[2147483647,0,0,1,1,2,2,3,3,6,6,7,7,8,8,9,9,13,13,14,14,15,15,16,16,21,21,22,22,26,26],"right_children":[2,4,6,8,-1,-1,10,12,14,16,-1,-1,-1,18,20,22,24,-1,-1,-1,-1,26,28,-1,-1,-1,30,-1,-1,-1,-1],"split_conditions":[4.684E1,4.678E1,4.696E1,4.129E1,-2.6570559E-2,2.8346336E-2,2E0,2.448E1,7.2E-1,1E0,1.54091185E-2,9.330041E-5,3.8702518E-3,4.205E1,2.276E1,2.621E1,2.646E1,2.6667118E-5,-1.439182E-3,-5.759568E-4,-6.0954154E-3,2.282E1,5.706E1,-2.4265051E-5,1.2646407E-3,-1.010233E-3,5.173E1,5.741783E-4,4.8208585E-5,-8.857721E-5,-4.0600644E-4],"split_indices":[1,1,1,1,0,0,4,0,3,4,0,0,0,1,0,3,0,0,0,0,0,0,1,0,0,0,1,0,0,0,0],"split_type":[0,0,0,0,0,0,0,0,0,0,0,0,0,0,0,0,0,0,0,0,0,0,0,0,0,0,0,0,0,0,0],"sum_hessian":[2.8E1,1E1,1.8E1,9E0,1E0,1E0,1.7E1,2E0,7E0,1.6E1,1E0,1E0,1E0,3E0,4E0,1.4E1,2E0,1E0,2E0,1E0,3E0,9E0,5E0,1E0,1E0,1E0,8E0,3E0,2E0,3E0,5E0],"tree_param":{"num_deleted":"0","num_feature":"5","num_nodes":"31","size_leaf_vector":"1"}},{"base_weights":[4.452277E-2,3.2423295E-2,2.2953372E-2,-3.6095597E-3,1.8323336E-2,1.567088E-3,-6.392455E-3,6.128673E-3,-5.1674685E-3,4.124554E-3,2.6576545E-3,6.1602206E-3,-3.0860766E-3,8.011684E-3,1.2252505E-3,-3.586883E-4,4.6018697E-5,8.896932E-4,2.2225593E-6,2.5720577E-4,2.4553423E-5],"categories":[],"categories_nodes":[],"categories_segments":[],"categories_sizes":[],"default_left":[0,0,0,0,0,0,0,0,0,0,0,0,0,0,0,0,0,0,0,0,0],"id":39,"left_children":[1,-1,3,5,-1,7,-1,9,-1,-1,11,13,15,17,19,-1,-1,-1,-1,-1,-1],"loss_changes":[1.6751997E-1,0E0,1.1987157E-1,7.905913E-3,0E0,6.1455015E-3,0E0,2.6938831E-3,0E0,0E0,4.6160247E-4,1.1810043E-4,1.7634557E-5,7.0528826E-5,5.965917E-6,0E0,0E0,0E0,0E0,0E0,0E0],"parents":[2147483647,0,0,2,2,3,3,5,5,7,7,10,10,11,11,12,12,13,13,14,14],"right_children":[2,-1,4,6,-1,8,-1,10,-1,-1,12,14,16,18,20,-1,-1,-1,-1,-1,-1],"split_conditions":[2.16E1,3.2423295E-2,2E0,1.3557E2,1.8323336E-2,7.4995E2,-6.392455E-3,2.193E1,-5.1674685E-3,4.124554E-3,5.376E1,3.67E1,4.0159E2,2.961E1,4.12E1,-3.586883E-4,4.6018697E-5,8.896932E-4,2.2225593E-6,2.5720577E-4,2.4553423E-5],"split_indices":[0,0,4,3,0,2,0,0,0,0,1,3,2,0,1,0,0,0,0,0,0],"split_type":[0,0,0,0,0,0,0,0,0,0,0,0,0,0,0,0,0,0,0,0,0],"sum_hessian":[2.8E1,1E0,2.7E1,2.4E1,3E0,2.3E1,1E0,2.2E1,1E0,1E0,2.1E1,1.3E1,8E0,9E0,4E0,7E0,1E0,8E0,1E0,1E0,3E0],"tree_param":{"num_deleted":"0","num_feature":"5","num_nodes":"21","size_leaf_vector":"1"}}]},"name":"gbtree"},"learner_model_param":{"base_score":"3.4375E-1","boost_from_average":"1","num_class":"0","num_feature":"5","num_target":"1"},"objective":{"name":"reg:squarederror","reg_loss_param":{"scale_pos_weight":"1"}}},"version":[2,0,0]}